// #### Generated By: http://www.cufonfonts.com ####
/*!
 * The following copyright notice may not be removed under any circumstances.
 * 
 * Copyright:
 * Copyright (c) Denis Moyogo Jacquerye, 2007. Some rights reserved.
 * OFL 1.1
 * 
 * Trademark:
 * Please refer to the Copyright section for the font trademark attribution
 * notices.
 * 
 * Manufacturer:
 * moyogo
 * 
 * Designer:
 * moyogo
 * 
 * License information:
 * http://scripts.sil.org/ofl
 */
Cufon.registerFont({"w":450,"face":{"font-family":"Molengo","font-weight":400,"font-stretch":"normal","units-per-em":"2048","panose-1":"2 0 0 0 0 0 0 0 0 0","ascent":"1556","descent":"-492","x-height":"18","bbox":"-41 -1883 1960 522","underline-thickness":"90","underline-position":"-196","unicode-range":"U+000C-U+20B5"},"glyphs":{" ":{"w":582},"!":{"d":"107,-1392r240,0r-64,932r-92,0xm227,18v-64,0,-118,-57,-118,-121v0,-64,54,-121,118,-121v64,0,118,57,118,121v0,64,-54,121,-118,121","w":454},"\"":{"d":"216,-1428r-48,448r-104,0r0,-448r152,0xm513,-1428r-48,448r-104,0r0,-448r152,0","w":575},"#":{"d":"524,-1475r128,0r-98,464r296,0r98,-464r128,0r-98,465r209,0r0,109r-232,0r-77,362r209,0r0,109r-232,0r-91,430r-128,0r91,-431r-296,0r-91,431r-128,0r91,-432r-219,0r0,-109r242,0r77,-362r-219,0r0,-109r242,0xm454,-540r296,0r77,-362r-296,0","w":1181},"$":{"d":"429,-1040v-77,19,-143,77,-142,168v2,103,66,146,142,189r0,-357xm136,-790v-50,-213,103,-368,293,-384r0,-164r117,0r0,165v99,9,178,34,237,74r-36,128v-59,-40,-126,-64,-201,-73r0,415r106,47v115,59,218,121,218,286v0,175,-148,301,-324,312r0,164r-117,0r0,-164v-142,-7,-239,-53,-333,-107r58,-120v80,53,150,91,275,98r0,-414r-64,-29v-100,-51,-200,-112,-229,-234xm546,-117v89,-13,163,-71,163,-157v0,-111,-77,-152,-163,-199r0,356","w":966},"%":{"d":"1117,-1391r128,0r-787,1391r-128,0xm41,-1065v0,-211,133,-327,334,-327v200,0,333,117,333,327v0,210,-133,326,-333,326v-201,0,-334,-115,-334,-326xm184,-1065v0,132,68,219,191,219v122,0,190,-87,190,-219v0,-132,-68,-219,-190,-219v-123,0,-191,87,-191,219xm819,-308v0,-211,133,-327,334,-327v200,0,333,117,333,327v0,210,-133,326,-333,326v-201,0,-334,-115,-334,-326xm962,-308v0,132,68,219,191,219v122,0,190,-87,190,-219v0,-132,-68,-219,-190,-219v-123,0,-191,87,-191,219","w":1566},"&":{"d":"237,-372v-2,154,142,261,299,261v130,0,286,-63,340,-144r-424,-459v-118,54,-213,182,-215,342xm296,-1088v0,-177,149,-298,320,-298v131,0,240,30,328,90r-40,140v-35,-31,-188,-105,-264,-101v-105,5,-160,80,-160,185v0,86,29,167,86,244v97,129,232,280,406,454v74,-107,163,-387,184,-546r106,68v-15,162,-133,461,-210,566r267,286r-211,0r-148,-160v-103,98,-216,184,-424,178v-264,-8,-460,-123,-460,-390v0,-230,144,-363,296,-456v-41,-61,-76,-161,-76,-260","w":1466},"'":{"d":"216,-1428r-48,448r-104,0r0,-448r152,0","w":264},"(":{"d":"581,-1477v-166,275,-310,557,-310,985v0,427,145,711,310,985r-110,0v-190,-282,-361,-546,-361,-985v0,-436,171,-704,361,-985r110,0","w":634},")":{"d":"53,493v166,-275,310,-557,310,-985v0,-427,-145,-711,-310,-985r110,0v190,281,361,549,361,985v0,439,-171,703,-361,985r-110,0","w":634},"*":{"d":"454,-953r149,249r-126,59r-79,-285r-190,219r-95,-102r247,-162r-267,-113r68,-122r230,184r25,-289r137,27r-104,276r283,-66r16,139","w":849},"+":{"d":"620,-558r449,0r0,109r-449,0r0,449r-110,0r0,-449r-449,0r0,-109r449,0r0,-450r110,0r0,450","w":1130},",":{"d":"225,-224v156,7,143,202,87,320v-27,57,-78,123,-155,198r-82,-72v87,-83,130,-148,130,-195v-12,-39,-63,-36,-83,-75v-41,-78,12,-180,103,-176"},"-":{"d":"690,-449r-629,0r0,-109r629,0r0,109","w":765},".":{"d":"225,18v-64,0,-118,-57,-118,-121v0,-64,54,-121,118,-121v64,0,118,57,118,121v0,64,-54,121,-118,121"},"\/":{"d":"493,-1475r128,0r-469,1475r-128,0","w":645},"0":{"d":"222,-524v4,298,207,460,496,400v176,-37,292,-176,292,-400v0,-224,-116,-357,-292,-402v-173,-44,-321,26,-404,120v-54,61,-93,165,-92,282xm190,-894v119,-128,332,-212,573,-156v240,56,408,224,408,526v0,301,-167,469,-408,526v-240,56,-451,-33,-573,-157v-112,-114,-169,-389,-93,-583v25,-63,55,-116,93,-156","w":1231},"1":{"d":"436,-1049r0,1049r-161,0r0,-906r-188,96r-53,-115r241,-124r161,0","w":581},"2":{"d":"581,-696v51,-136,-32,-242,-181,-242v-80,0,-163,28,-250,84r-60,-105v66,-52,187,-108,310,-108v205,0,363,88,358,287v-4,166,-109,275,-196,364r-280,288r520,0r0,128r-712,0r0,-128r298,-304v76,-81,153,-155,193,-264","w":919},"3":{"d":"536,-462v154,53,252,170,252,381v0,203,-112,335,-266,397v-159,64,-374,36,-486,-58r65,-104v65,41,127,67,226,67v174,0,298,-133,298,-302v0,-183,-137,-299,-309,-299r-82,0r0,-128v188,7,320,-63,320,-240v0,-206,-246,-227,-410,-146r-42,-112v57,-30,164,-61,244,-61v228,0,371,99,371,320v0,148,-85,232,-181,285","w":841},"4":{"d":"591,-259r0,-563r-359,563r359,0xm62,-236r529,-831r161,0r0,808r217,0r0,128r-217,0r0,387r-161,0r0,-387r-529,0r0,-105","w":995},"5":{"d":"587,-102v0,-268,-220,-346,-502,-338r35,-609r596,0r0,128r-434,0r-18,361v287,21,479,150,484,458v5,316,-253,505,-588,438v-45,-9,-82,-21,-112,-38r56,-123v47,27,105,40,172,40v197,0,311,-131,311,-317","w":835},"6":{"d":"378,-156v101,66,236,52,322,-28v99,-91,105,-324,9,-420v-79,-79,-236,-96,-351,-50v-42,18,-83,45,-122,82v-20,182,32,344,142,416xm942,-416v0,285,-227,498,-537,420v-216,-54,-339,-233,-335,-513v7,-506,299,-746,770,-796r15,129v-319,29,-541,180,-602,463v52,-58,173,-97,283,-97v228,0,406,165,406,394","w":1013},"7":{"d":"124,257v21,-264,153,-717,255,-893r165,-285r-509,0r0,-128r736,0v-141,245,-292,487,-379,785v-53,181,-90,354,-107,521r-161,0","w":787},"8":{"d":"472,-1176v-108,0,-202,50,-202,164v0,149,112,195,213,255v87,-67,190,-116,190,-255v0,-112,-93,-164,-201,-164xm466,-111v154,0,299,-99,250,-261v-39,-129,-172,-171,-280,-233v-111,67,-201,137,-205,293v-3,106,124,201,235,201xm70,-304v0,-204,120,-287,246,-368v-112,-74,-207,-164,-207,-348v0,-243,307,-342,537,-252v96,38,188,126,188,252v0,176,-119,252,-231,326v145,81,282,170,282,390v0,225,-174,322,-413,322v-238,0,-402,-96,-402,-322","w":952},"9":{"d":"634,-893v-101,-66,-236,-52,-322,28v-99,91,-105,325,-9,421v79,79,236,96,351,50v42,-18,83,-46,122,-83v20,-182,-32,-344,-142,-416xm70,-633v0,-285,227,-498,537,-420v216,54,339,233,335,513v-7,506,-299,746,-770,796r-15,-129v319,-29,541,-180,602,-463v-52,58,-173,97,-283,97v-228,0,-406,-165,-406,-394","w":1013},":":{"d":"225,-633v-64,0,-118,-57,-118,-121v0,-64,54,-121,118,-121v64,0,118,57,118,121v0,64,-54,121,-118,121xm225,18v-64,0,-118,-57,-118,-121v0,-64,54,-121,118,-121v64,0,118,57,118,121v0,64,-54,121,-118,121"},";":{"d":"225,-224v156,7,143,202,87,320v-27,57,-78,123,-155,198r-82,-72v87,-83,130,-148,130,-195v-12,-39,-63,-36,-83,-75v-41,-78,12,-180,103,-176xm225,-633v-64,0,-118,-57,-118,-121v0,-64,54,-121,118,-121v64,0,118,57,118,121v0,64,-54,121,-118,121"},"<":{"d":"0,-525r800,-630r79,84r-692,546r692,546r-79,84","w":967},"=":{"d":"991,-630r-930,0r0,-108r930,0r0,108xm991,-294r-930,0r0,-108r930,0r0,108","w":1052},">":{"d":"967,-525r-800,630r-79,-84r692,-546r-692,-546r79,-84","w":967},"?":{"d":"420,18v-64,0,-118,-57,-118,-121v0,-64,54,-121,118,-121v64,0,118,57,118,121v0,64,-54,121,-118,121xm603,-1180v0,-99,-106,-155,-229,-155v-74,0,-146,21,-216,63r-50,-108v80,-54,174,-84,312,-84v170,0,352,116,344,284v-10,227,-175,346,-258,507v-46,90,-30,161,-4,265r-134,20v-46,-80,-75,-206,-24,-312v63,-131,171,-226,230,-358v20,-43,29,-83,29,-122","w":864},"@":{"d":"1755,195v-154,163,-412,300,-725,297v-527,-6,-819,-269,-916,-702v-70,-310,24,-620,165,-800v168,-215,407,-398,771,-398v447,0,725,218,842,554v70,201,35,461,-55,606v-87,140,-212,263,-428,263v-142,0,-240,-34,-253,-159v-77,108,-179,162,-308,162v-197,0,-295,-119,-295,-323v0,-329,173,-536,415,-625v175,-64,365,-15,474,71r-91,467v-16,81,-24,142,-24,183v1,86,29,114,113,114v144,0,245,-143,298,-265v116,-269,-3,-585,-145,-732v-156,-162,-487,-267,-775,-167v-170,59,-307,174,-412,305v-153,191,-231,570,-112,854v83,198,222,337,418,422v243,105,596,55,768,-61v82,-56,118,-83,185,-136xm774,-591v-73,150,-114,488,109,481v151,-4,214,-95,288,-181r97,-500v-98,-71,-291,-26,-364,34v-52,42,-100,104,-130,166","w":1994},"A":{"d":"933,-404r-548,0r-150,404r-168,0r522,-1391r150,0r522,1391r-178,0xm881,-544r-222,-600r-223,600r445,0","w":1328},"B":{"d":"771,-1040v2,-203,-219,-262,-410,-212r0,457v227,10,408,-45,410,-245xm499,-122v221,1,384,-72,384,-268v0,-177,-154,-265,-462,-265r-60,0r0,515v22,8,107,19,138,18xm1068,-413v0,304,-244,430,-560,431v-92,1,-255,-14,-328,-31r0,-1359v111,-25,217,-37,320,-37v240,0,461,105,463,325v2,176,-107,295,-246,332v198,28,351,117,351,339","w":1116},"C":{"d":"1166,-126v-127,99,-244,148,-473,144v-418,-9,-644,-289,-644,-714v0,-480,290,-770,806,-706v141,18,215,66,311,137r-88,119v-102,-75,-193,-126,-350,-123v-250,4,-388,164,-454,360v-74,219,-9,482,94,611v76,96,198,175,360,176v156,1,249,-48,350,-123","w":1255},"D":{"d":"863,-29v-198,72,-466,47,-683,16r0,-1359v321,-63,600,-46,811,84v190,117,339,300,339,597v0,354,-200,565,-467,662xm361,-1252r-1,1112v136,25,285,26,408,-19v211,-78,374,-247,374,-529v0,-311,-191,-483,-432,-559v-107,-34,-245,-27,-349,-5","w":1375},"E":{"d":"361,-644r0,504r614,0r0,140r-795,0r0,-1391r795,0r0,139r-614,0r0,468r418,0r0,140r-418,0","w":1077},"F":{"d":"361,-644r0,644r-181,0r0,-1391r795,0r0,139r-614,0r0,468r418,0r0,140r-418,0","w":999},"G":{"d":"742,18v-420,5,-698,-295,-693,-714v5,-500,351,-771,889,-704v148,18,232,67,338,136r-70,133v-208,-131,-427,-188,-656,-90v-226,96,-367,380,-288,697v55,222,196,394,468,402v112,3,226,-23,341,-75r0,-329r-297,0r0,-139r478,-1r-1,540v-141,94,-285,141,-509,144","w":1435},"H":{"d":"1184,-1390r0,1390r-181,0r0,-664r-642,0r0,664r-181,0r0,-1391r181,0r0,587r642,0r0,-586r181,0","w":1364},"I":{"d":"361,-1391r0,1391r-181,0r0,-1391r181,0","w":541},"J":{"d":"-41,396v145,-115,221,-223,221,-465r0,-1322r181,0r-2,1359v-2,277,-131,434,-322,527","w":541},"K":{"d":"361,0r-181,0r0,-1391r181,0r0,698r510,-698r188,0r-504,690r548,701r-211,0r-531,-679r0,679","w":1115},"L":{"d":"180,0r0,-1391r181,0r0,1251r614,0r0,140r-795,0","w":1010},"M":{"d":"893,-249r430,-1143r168,0r173,1392r-178,0r-124,-1039r-381,1039r-165,0r-417,-1087r-130,1087r-160,0r173,-1392r178,0","w":1774},"N":{"d":"1205,-1391r0,1391r-181,0r-663,-1042r0,1042r-181,0r0,-1391r181,0r663,1043r0,-1043r181,0","w":1385},"O":{"d":"435,-1356v150,-62,369,-73,531,-17v271,93,433,316,433,670v0,264,-102,455,-249,579v-99,84,-246,142,-423,142v-344,0,-550,-175,-638,-436v-58,-170,-60,-398,1,-566v63,-175,175,-301,345,-372xm727,-1271v-325,0,-490,236,-490,568v0,232,79,403,221,502v124,86,329,106,474,31v176,-90,278,-277,278,-533v0,-327,-163,-568,-483,-568","w":1444},"P":{"d":"180,-1372v78,-15,245,-38,335,-37v309,3,515,117,520,413v5,256,-230,427,-504,420r-170,0r0,576r-181,0r0,-1372xm843,-996v0,-183,-125,-277,-323,-274v-57,0,-110,6,-159,18r0,536v280,4,482,-27,482,-280","w":1083},"Q":{"d":"1399,-703v-4,334,-161,563,-399,669v116,65,219,147,372,176r-53,130v-237,-41,-349,-239,-598,-254v-364,-22,-571,-197,-649,-491v-43,-162,-35,-362,18,-511v91,-256,297,-425,637,-425v363,0,565,196,645,484v19,70,27,144,27,222xm727,-1271v-325,0,-490,236,-490,568v0,232,79,403,221,502v124,86,329,106,474,31v176,-90,278,-277,278,-533v0,-327,-163,-568,-483,-568","w":1449},"R":{"d":"994,-1030v0,237,-196,384,-435,399r520,631r-201,0r-517,-628r0,628r-181,0r0,-1372v125,-25,231,-37,320,-37v276,0,494,134,494,379xm802,-1024v0,-192,-243,-290,-441,-228r0,484v278,5,441,-78,441,-256","w":1045},"S":{"d":"898,-464v65,269,-124,482,-380,482v-190,0,-312,-56,-422,-131r61,-140v89,71,179,131,342,131v164,0,262,-131,207,-285v-57,-158,-266,-190,-394,-284v-100,-73,-185,-174,-185,-349v0,-210,157,-369,371,-369v130,0,251,39,321,92r-38,138v-79,-61,-169,-92,-270,-92v-177,0,-253,257,-134,375v159,157,459,176,521,432","w":1007},"T":{"d":"57,-1391r1069,0r0,139r-444,0r0,1252r-181,0r0,-1252r-444,0r0,-139","w":1183,"k":{"a":84,"e":95,"o":95,"r":160,"p":162}},"U":{"d":"1130,-469v2,287,-163,487,-449,487v-334,0,-501,-152,-501,-456r0,-953r181,0r0,905v-3,232,107,363,320,363v204,0,278,-157,278,-390r0,-878r171,0r0,922","w":1310},"V":{"d":"669,-248r424,-1143r168,0r-522,1391r-150,0r-522,-1391r178,0","w":1328},"W":{"d":"1792,-1391r168,0r-461,1391r-150,0r-336,-1014r-336,1014r-150,0r-460,-1391r178,0r362,1143r363,-1143r97,0r362,1143","w":2027},"X":{"d":"108,-1392r211,0r343,538r340,-537r188,0r-434,685r448,705r-212,0r-359,-565r-361,571r-188,0r455,-719","w":1288},"Y":{"d":"1014,-1391r168,0r-471,773r0,618r-181,0r0,-619r-471,-772r178,0r389,637","w":1241},"Z":{"d":"87,-1391r1029,0r-796,1252r796,0r0,140r-1066,-1r796,-1252r-759,0r0,-139","w":1259},"[":{"d":"100,490r0,-1965r422,0r0,128r-261,0r0,1709r261,0r0,128r-422,0","w":581},"\\":{"d":"152,-1475r469,1475r-128,0r-469,-1475r128,0","w":645},"]":{"d":"522,490r-422,0r0,-128r261,0r0,-1709r-261,0r0,-128r422,0r0,1965","w":581},"^":{"d":"600,-1409r415,581r-100,33r-375,-515r-375,515r-100,-33r415,-581r120,0","w":1085},"_":{"d":"983,297r-918,0r0,-109r918,0r0,109","w":1048},"`":{"d":"10,-1475r188,0r162,375r-111,0","w":491},"a":{"d":"276,-338v-107,77,-39,232,100,232v175,0,249,-113,235,-310v-139,0,-257,22,-335,78xm356,21v-173,-3,-280,-93,-280,-256v0,-185,163,-246,323,-280v52,-11,130,-15,212,-14v-3,-95,16,-206,-42,-254v-102,-84,-281,-45,-416,18r-8,-125v200,-66,341,-101,493,-6v57,36,94,94,112,169v37,157,-4,538,30,727r-156,0v-9,-29,-14,-63,-13,-100v-54,67,-160,123,-255,121","w":894,"k":{"T":82}},"b":{"d":"838,-490v0,-192,-67,-338,-244,-338v-109,0,-198,61,-269,180r0,500v39,25,94,37,165,37v231,0,348,-149,348,-379xm325,-828v75,-84,145,-128,281,-128v268,0,393,192,393,474v0,260,-143,418,-341,480v-177,55,-356,5,-494,-78r0,-1395r161,0r0,647","w":1059},"c":{"d":"508,18v-278,3,-447,-203,-447,-487v0,-284,169,-490,447,-487v179,1,219,24,328,100r-62,108v-70,-49,-127,-77,-231,-79v-193,-4,-321,167,-321,358v0,191,128,362,321,358v104,-2,162,-30,231,-79r62,108v-109,76,-149,99,-328,100","w":888},"d":{"d":"61,-432v-6,-291,196,-526,472,-524v56,0,123,11,201,32r0,-551r165,0r0,1475r-165,0r0,-110v-118,144,-321,169,-479,64v-113,-75,-190,-213,-194,-386xm480,-111v118,-1,204,-94,254,-179r0,-494v-87,-44,-207,-65,-302,-16v-119,62,-206,186,-210,364v-4,168,104,327,258,325","w":1063},"e":{"d":"714,-580v-10,-131,-81,-248,-214,-248v-167,0,-251,90,-271,248r485,0xm546,18v-304,5,-486,-191,-485,-487v1,-252,110,-412,300,-471v122,-38,277,-6,349,49v101,77,157,202,162,371r-24,60r-626,0v-1,211,121,347,321,349v112,1,159,-25,252,-59r43,115v-65,47,-187,72,-292,73","w":939,"k":{"T":82}},"f":{"d":"575,-1336v-100,0,-192,126,-192,229r0,169r229,0r0,128r-229,0r0,810r-161,0r0,-810r-166,0r0,-128r166,0r0,-82v-4,-340,164,-487,459,-432v75,13,114,48,165,78r-44,127v-49,-43,-138,-89,-227,-89","w":675},"g":{"d":"706,-621v0,-126,-80,-206,-214,-206v-140,0,-214,90,-214,225v0,122,77,190,214,188v135,-2,214,-79,214,-207xm118,-170v0,-77,53,-144,113,-183v-102,-68,-141,-224,-95,-369v45,-141,165,-235,356,-234v47,0,91,6,132,18r314,0r0,128r-133,0v81,105,78,266,10,372v-60,95,-167,152,-323,153v-57,0,-109,-6,-154,-18v-50,39,-84,99,-37,144v108,65,318,18,453,67v100,36,184,88,184,213v0,270,-230,370,-514,371v-191,1,-358,-73,-358,-251v0,-144,84,-200,176,-259v-83,-28,-124,-79,-124,-152xm227,222v0,159,239,157,381,120v99,-26,216,-127,155,-246v-50,-98,-217,-87,-367,-90v-80,45,-169,94,-169,216","w":980},"h":{"d":"566,-828v-144,0,-241,125,-241,250r0,578r-161,0r0,-1475r161,0r0,709v60,-127,158,-190,293,-190v219,0,339,157,339,393r0,563r-161,0r0,-507v1,-200,-58,-321,-230,-321","w":1121},"i":{"d":"302,-1188v-64,0,-118,-57,-118,-121v0,-64,54,-121,118,-121v64,0,118,57,118,121v0,64,-54,121,-118,121xm383,-938r0,938r-161,0r0,-810r-166,0r0,-128r327,0","w":547},"j":{"d":"302,-1188v-64,0,-118,-57,-118,-121v0,-64,54,-121,118,-121v64,0,118,57,118,121v0,64,-54,121,-118,121xm10,420v136,-123,212,-263,212,-531r0,-699r-166,0r0,-128r327,0r-2,932v-13,249,-114,389,-281,498","w":547},"k":{"d":"325,0r-161,0r0,-1475r161,0r0,851r319,-314r200,0r-386,376r455,562r-199,0r-389,-479r0,479","w":935},"l":{"d":"372,18v-152,0,-209,-96,-208,-264r0,-1229r161,0r0,1219v-3,85,34,138,98,144v10,0,44,-3,103,-8r13,117v-67,14,-122,21,-167,21","w":593},"m":{"d":"1145,-956v250,0,336,205,336,487r0,468r-156,1r0,-469v0,-239,-71,-359,-214,-359v-132,0,-208,145,-208,279r0,549r-156,0r0,-469v0,-239,-71,-359,-214,-359v-132,0,-208,145,-208,279r0,549r-161,0r0,-938r161,0r0,149v39,-91,116,-168,242,-167v151,0,251,75,300,225v53,-150,145,-225,278,-225","w":1645},"n":{"d":"618,-956v219,0,339,157,339,393r0,563r-161,0r0,-507v1,-200,-58,-321,-230,-321v-144,0,-241,125,-241,250r0,578r-161,0r0,-938r161,0r0,172v60,-127,158,-190,293,-190","w":1121},"o":{"d":"506,-827v-200,0,-284,146,-284,358v0,212,84,358,284,358v199,0,282,-147,282,-358v0,-211,-83,-358,-282,-358xm506,18v-297,0,-445,-181,-445,-487v0,-306,148,-487,445,-487v297,0,445,181,445,487v0,306,-148,487,-445,487","w":1012,"k":{"T":83}},"p":{"d":"583,-827v-118,1,-204,94,-254,179r0,494v83,44,209,65,303,16v119,-62,205,-186,209,-364v4,-168,-104,-327,-258,-325xm1002,-506v6,291,-196,526,-472,524v-56,0,-123,-11,-201,-32r0,506r-165,0r0,-1430r165,0r0,110v118,-144,321,-169,479,-64v113,75,190,213,194,386","w":1063},"q":{"d":"735,-110v-75,84,-145,128,-281,128v-268,0,-393,-192,-393,-474v0,-260,143,-418,341,-480v177,-55,356,-5,494,78r0,1350r-161,0r0,-602xm222,-448v0,190,66,338,242,338v109,0,200,-60,271,-180r0,-500v-39,-25,-94,-37,-165,-37v-231,0,-348,149,-348,379","w":1060},"r":{"d":"722,-762v-45,-76,-188,-87,-266,-20v-65,56,-131,146,-131,248r0,534r-161,0r0,-938r161,0r0,172v45,-94,129,-190,264,-190v87,0,173,43,201,92","w":830},"s":{"d":"86,-695v0,-148,147,-261,310,-261v109,0,211,34,268,77r-57,120v-39,-32,-129,-69,-201,-69v-122,0,-207,119,-127,206v33,36,157,75,227,100v127,45,208,104,210,258v2,181,-138,285,-328,282v-140,-3,-217,-25,-322,-86r58,-124v92,52,135,81,258,81v115,0,173,-50,173,-149v0,-60,-55,-108,-165,-144v-96,-31,-206,-70,-254,-140v-32,-47,-50,-96,-50,-151","w":782},"t":{"d":"412,18v-166,0,-238,-88,-238,-264r0,-564r-166,0r0,-128r166,0r0,-190r161,-60r0,250r229,0r0,128r-229,0r0,554v-4,91,51,144,126,144v62,0,110,-5,145,-16r20,113v-61,22,-133,33,-214,33","w":669},"u":{"d":"503,18v-219,0,-339,-157,-339,-393r0,-563r161,0r0,507v-1,200,58,321,230,321v144,0,241,-125,241,-250r0,-578r161,0r0,938r-161,0r0,-172v-60,127,-158,190,-293,190","w":1121},"v":{"d":"801,-938r162,0r-417,938r-106,0r-419,-938r173,0r304,672","w":984},"w":{"d":"1329,-938r162,0r-367,938r-104,0r-264,-671r-262,671r-104,0r-369,-938r173,0r253,672r252,-672r125,0r253,672","w":1512},"x":{"d":"61,-938r186,0r235,346r244,-343r172,0r-336,461r321,474r-186,0r-234,-345r-245,345r-172,0r337,-463","w":945},"y":{"d":"57,322v35,33,95,66,148,32v116,-74,164,-235,228,-365r-409,-927r173,0r323,731r324,-731r162,0r-414,920v-59,137,-111,244,-159,318v-77,118,-118,196,-263,196v-67,0,-124,-25,-171,-76","w":1027},"z":{"d":"111,-938r778,0r-549,810r565,0r0,128r-838,0r549,-810r-505,0r0,-128","w":972},"{":{"d":"407,-810v-4,181,-54,278,-193,318v139,41,189,137,193,318v1,43,-24,296,-24,330v-2,149,65,226,163,285r-26,81v-199,-54,-298,-177,-298,-370v0,-72,24,-266,24,-326v0,-149,-62,-259,-193,-273r0,-90v131,-14,191,-124,193,-273v0,-58,-24,-256,-24,-326v0,-193,99,-316,298,-370r26,81v-98,59,-165,136,-163,285v0,32,25,289,24,330","w":667},"|":{"d":"210,-1477r0,1965r-110,0r0,-1965r110,0","w":310},"}":{"d":"260,-174v4,-181,54,-278,193,-318v-139,-41,-189,-137,-193,-318v-1,-43,24,-296,24,-330v2,-149,-65,-226,-163,-285r26,-81v199,54,298,177,298,370v0,72,-24,266,-24,326v0,149,62,259,193,273r0,90v-131,14,-191,124,-193,273v0,58,24,256,24,326v0,193,-99,316,-298,370r-26,-81v98,-59,165,-136,163,-285v0,-32,-25,-289,-24,-330","w":667},"~":{"d":"167,-423r-108,-66v97,-137,203,-206,316,-206v142,1,272,104,410,104v72,0,136,-36,193,-108r108,66v-97,137,-203,206,-316,206v-142,-1,-272,-104,-410,-104v-72,0,-136,36,-193,108","w":1144},"\u00c7":{"d":"664,288v3,-72,-51,-117,-125,-116v0,-83,24,-153,73,-208r93,0v-28,48,-42,95,-42,142v66,16,124,97,122,182v-3,128,-71,161,-171,206r-79,-75v67,-32,126,-51,129,-131xm1166,-126v-127,99,-244,148,-473,144v-418,-9,-644,-289,-644,-714v0,-480,290,-770,806,-706v141,18,215,66,311,137r-88,119v-102,-75,-193,-126,-350,-123v-250,4,-388,164,-454,360v-74,219,-9,482,94,611v76,96,198,175,360,176v156,1,249,-48,350,-123","w":1255},"\u00d6":{"d":"491,-1641v-64,0,-118,-57,-118,-121v0,-64,54,-121,118,-121v64,0,118,57,118,121v0,64,-54,121,-118,121xm963,-1641v-64,0,-118,-57,-118,-121v0,-64,54,-121,118,-121v64,0,118,57,118,121v0,64,-54,121,-118,121xm435,-1356v150,-62,369,-73,531,-17v271,93,433,316,433,670v0,264,-102,455,-249,579v-99,84,-246,142,-423,142v-344,0,-550,-175,-638,-436v-58,-170,-60,-398,1,-566v63,-175,175,-301,345,-372xm727,-1271v-325,0,-490,236,-490,568v0,232,79,403,221,502v124,86,329,106,474,31v176,-90,278,-277,278,-533v0,-327,-163,-568,-483,-568","w":1444},"\u00dc":{"d":"419,-1624v-64,0,-118,-57,-118,-121v0,-64,54,-121,118,-121v64,0,118,57,118,121v0,64,-54,121,-118,121xm891,-1624v-64,0,-118,-57,-118,-121v0,-64,54,-121,118,-121v64,0,118,57,118,121v0,64,-54,121,-118,121xm1130,-469v2,287,-163,487,-449,487v-334,0,-501,-152,-501,-456r0,-953r181,0r0,905v-3,232,107,363,320,363v204,0,278,-157,278,-390r0,-878r171,0r0,922","w":1310},"\u00e7":{"d":"520,288v3,-72,-51,-117,-125,-116v0,-83,24,-153,73,-208r93,0v-28,48,-42,95,-42,142v66,16,124,97,122,182v-3,128,-71,161,-171,206r-79,-75v67,-32,126,-51,129,-131xm508,18v-278,3,-447,-203,-447,-487v0,-284,169,-490,447,-487v179,1,219,24,328,100r-62,108v-70,-49,-127,-77,-231,-79v-193,-4,-321,167,-321,358v0,191,128,362,321,358v104,-2,162,-30,231,-79r62,108v-109,76,-149,99,-328,100","w":888},"\u00f6":{"d":"270,-1188v-64,0,-118,-57,-118,-121v0,-64,54,-121,118,-121v64,0,118,57,118,121v0,64,-54,121,-118,121xm742,-1188v-64,0,-118,-57,-118,-121v0,-64,54,-121,118,-121v64,0,118,57,118,121v0,64,-54,121,-118,121xm506,-827v-200,0,-284,146,-284,358v0,212,84,358,284,358v199,0,282,-147,282,-358v0,-211,-83,-358,-282,-358xm506,18v-297,0,-445,-181,-445,-487v0,-306,148,-487,445,-487v297,0,445,181,445,487v0,306,-148,487,-445,487","w":1012},"\u00fc":{"d":"319,-1188v-64,0,-118,-57,-118,-121v0,-64,54,-121,118,-121v64,0,118,57,118,121v0,64,-54,121,-118,121xm791,-1188v-64,0,-118,-57,-118,-121v0,-64,54,-121,118,-121v64,0,118,57,118,121v0,64,-54,121,-118,121xm503,18v-219,0,-339,-157,-339,-393r0,-563r161,0r0,507v-1,200,58,321,230,321v144,0,241,-125,241,-250r0,-578r161,0r0,938r-161,0r0,-172v-60,127,-158,190,-293,190","w":1121},"\u0130":{"d":"270,-1641v-64,0,-118,-57,-118,-121v0,-64,54,-121,118,-121v64,0,118,57,118,121v0,64,-54,121,-118,121xm361,-1391r0,1391r-181,0r0,-1391r181,0","w":541},"\u0131":{"d":"383,-938r0,938r-161,0r0,-810r-166,0r0,-128r327,0","w":547},"\u20a6":{"d":"944,-350r0,-126r-78,0xm361,-1296r307,498r276,0r0,-498r181,0r0,498r127,0r0,109r-127,0r0,104r127,0r0,109r-127,0r0,476r-181,0r-294,-476r-289,0r0,476r-181,0r0,-476r-127,0r0,-109r127,0r0,-104r-127,0r0,-109r127,0r0,-498r181,0xm361,-945r0,147r91,0xm361,-689r0,104r222,0r-64,-104r-158,0xm944,-689r-209,0r64,104r145,0r0,-104","w":1305},"\u20ac":{"d":"255,-798v71,-333,342,-553,765,-498v135,17,225,64,306,126r-88,106v-74,-64,-190,-113,-335,-112v-257,0,-437,158,-485,378r584,0r0,109r-600,0v-2,35,-1,71,1,104r545,0r0,109r-531,0v48,226,193,363,466,365v122,0,244,-35,365,-106r78,102v-117,85,-258,137,-471,133v-345,-6,-541,-194,-601,-494r-193,0r0,-109r181,0v-2,-33,-3,-69,-1,-104r-127,0r0,-109r141,0","w":1398},"\u20b5":{"d":"76,-579v0,-291,196,-528,439,-581r0,-178r117,0r0,162v177,-7,334,53,430,122r-80,109v-56,-47,-225,-121,-350,-100r0,933v133,6,236,-27,359,-95r71,104v-106,81,-250,121,-430,121r0,162r-117,0r0,-173v-263,-46,-439,-275,-439,-586xm515,-1018v-160,59,-278,220,-278,434v0,227,101,400,278,452r0,-886","w":1146},"\u00a0":{"w":582}}});
